X[m];Y[m];Z[m];u-x[m];u-y[m];u-z[m];du-y[m];du-z[m]
0.0;7.0;0.926999999996;-0.000188969977;3.80903790721e-06;-0.00183762503219;0.0;0.0
0.125;7.0;0.9270065247;-0.000188921061663;3.40999283421e-06;-0.00174274223781;0.0;0.0
0.25;7.0;0.926997467659;-0.000188938348991;2.48311125313e-06;-0.0016477320305;0.0;0.0
0.375;7.0;0.927000142785;-0.000188864600498;1.65402759564e-06;-0.00155199211295;0.0;0.0
0.5;7.0;0.92700050739;-0.000188329130948;0.0;-0.00145713341826;0.0;0.0
0.625;7.0;0.926999804227;-0.00018741428146;8.90831570605e-07;-0.00136526346912;0.0;0.0
0.75;7.0;0.927000018793;-0.00018625406954;9.87305546014e-07;-0.00127567334888;0.0;0.0
0.875;7.0;0.927000035502;-0.000184621261579;1.12819190389e-06;-0.00118812949566;0.0;0.0
1.0;7.0;0.926999929804;-0.000182540506903;8.57105947896e-07;-0.00110372023362;0.0;0.0
1.125;7.0;0.926999985661;-0.000180046018115;9.76513456758e-07;-0.00102300835718;0.0;0.0
1.25;7.0;0.926999969276;-0.000177167506476;7.76361206859e-07;-0.000946442656056;0.0;0.0
1.375;7.0;0.926999872704;-0.000173941757406;6.09243618903e-07;-0.000874094202092;0.0;0.0
1.5;7.0;0.926999955989;-0.000170253633923;0.0;-0.000806863965976;0.0;0.0
1.625;7.0;0.92699995127;-0.000166316878382;1.16506440556e-06;-0.000745885395343;0.0;0.0
1.75;7.0;0.926999792988;-0.000162334042602;1.87108057777e-06;-0.000689833870027;0.0;0.0
1.875;7.0;0.926999913132;-0.000158181557137;2.52689033368e-06;-0.000637627374561;0.0;0.0
2.0;7.0;0.926999955831;-0.000153893704586;2.71630094805e-06;-0.000589089719524;0.0;0.0
2.125;7.0;0.926999674726;-0.000149469290056;3.0476214704e-06;-0.000543709971194;0.0;0.0
2.25;7.0;0.926999892139;-0.000144941125316;2.67652983992e-06;-0.000501166131253;0.0;0.0
2.375;7.0;0.927000021252;-0.000140346352143;1.78335474252e-06;-0.000460553991699;0.0;0.0
2.5;7.0;0.926999205656;-0.000135273974801;0.0;-0.000423353827677;0.0;0.0
2.67045048712;7.0;0.927000845709;-0.00012831613662;1.60345666886e-06;-0.000380728376348;0.0;0.0
2.84090097423;7.0;0.926995530172;-0.000121730938094;2.00177096121e-06;-0.00034268206619;0.0;0.0
3.01135146135;7.0;0.927011022567;-0.000114850960254;1.26198747308e-06;-0.000306256389313;0.0;0.0
3.18180194847;7.0;0.926967743115;-0.000107481881459;-7.08985991487e-08;-0.000273607534743;0.0;0.0
3.34090097423;7.0;0.927053799456;-9.98928145481e-05;-4.64762280099e-07;-0.000249070237814;0.0;0.0
3.5;7.0;0.927000002831;-9.20369951461e-05;0.0;-0.000231637543707;0.0;0.0
3.65909902577;7.0;0.927053799456;-8.41679831622e-05;-7.15976537047e-07;-0.000221134975492;0.0;0.0
3.81819805153;7.0;0.926967743115;-7.65502122485e-05;-5.12635880714e-07;-0.000217936083213;0.0;0.0
3.98864853865;7.0;0.927011022567;-6.91598840689e-05;6.97439418893e-07;-0.000221283568598;0.0;0.0
4.15909902577;7.0;0.926995530172;-6.22770932845e-05;1.47496836688e-06;-0.000228874999094;0.0;0.0
4.32954951288;7.0;0.927000845709;-5.57181897152e-05;1.26828150379e-06;-0.000238642664804;0.0;0.0
4.5;7.0;0.926999205656;-4.88864143054e-05;0.0;-0.000253122835874;0.0;0.0
4.625;7.0;0.927000021252;-4.39381735548e-05;1.72104541869e-06;-0.000269396006422;0.0;0.0
4.75;7.0;0.926999892139;-3.94489532096e-05;2.62285593263e-06;-0.000288967897703;0.0;0.0
4.875;7.0;0.926999674726;-3.50481516693e-05;3.05565482927e-06;-0.000310483532308;0.0;0.0
5.0;7.0;0.926999955831;-3.07702722001e-05;2.80517303364e-06;-0.000334722735299;0.0;0.0
5.125;7.0;0.926999913132;-2.66324620953e-05;2.71892003862e-06;-0.000361946293897;0.0;0.0
5.25;7.0;0.926999792988;-2.26470392048e-05;2.09706591612e-06;-0.000392599122402;0.0;0.0
5.375;7.0;0.92699995127;-1.88486086212e-05;1.36032990347e-06;-0.000426672580663;0.0;0.0
5.5;7.0;0.926999955989;-1.50485052973e-05;0.0;-0.000465464353696;0.0;0.0
5.625;7.0;0.926999872704;-1.15060976258e-05;9.96663801038e-07;-0.000510628679714;0.0;0.0
5.75;7.0;0.926999969276;-8.49734346347e-06;1.35670379462e-06;-0.000560507833694;0.0;0.0
5.875;7.0;0.926999985661;-5.84255942688e-06;1.6227992735e-06;-0.000613803933683;0.0;0.0
6.0;7.0;0.926999929804;-3.57356993103e-06;1.45400687291e-06;-0.000670475338165;0.0;0.0
6.125;7.0;0.927000035502;-1.73066440994e-06;1.57622700885e-06;-0.000729995445879;0.0;0.0
6.25;7.0;0.927000018793;-3.24891937757e-07;1.2758378357e-06;-0.000791773707932;0.0;0.0
6.375;7.0;0.926999804227;6.19349270568e-07;9.61868862211e-07;-0.000854834091768;0.0;0.0
6.5;7.0;0.92700050739;1.30258159164e-06;0.0;-0.000919203434195;0.0;0.0
6.625;7.0;0.927000142785;1.64611920715e-06;8.58274250994e-07;-0.000985261402137;0.0;0.0
6.75;7.0;0.926997467659;1.61049174487e-06;1.10296270856e-06;-0.00105137903388;0.0;0.0
6.875;7.0;0.9270065247;1.4714583654e-06;1.39875645391e-06;-0.00111650147134;0.0;0.0
7.0;7.0;0.926999999996;-1.35638402493e-06;1.35730168102e-06;-0.00118121043024;0.0;0.0
7.125;7.0;0.9270065247;-1.47145835032e-06;1.39875645687e-06;-0.00111650147132;0.0;0.0
7.25;7.0;0.926997467659;-1.61049172982e-06;1.10296271071e-06;-0.00105137903386;0.0;0.0
7.375;7.0;0.927000142785;-1.64611919212e-06;8.58274252278e-07;-0.000985261402105;0.0;0.0
7.5;7.0;0.92700050739;-1.30258157649e-06;0.0;-0.000919203434159;0.0;0.0
7.625;7.0;0.926999804227;-6.19349255262e-07;9.6186886217e-07;-0.000854834091729;0.0;0.0
7.75;7.0;0.927000018793;3.24891953181e-07;1.2758378353e-06;-0.00079177370789;0.0;0.0
7.875;7.0;0.927000035502;1.73066442554e-06;1.5762270081e-06;-0.000729995445836;0.0;0.0
8.0;7.0;0.926999929804;3.57356994688e-06;1.45400687181e-06;-0.000670475338121;0.0;0.0
8.125;7.0;0.926999985661;5.84255944294e-06;1.62279927223e-06;-0.00061380393364;0.0;0.0
8.25;7.0;0.926999969276;8.49734347971e-06;1.35670379345e-06;-0.000560507833652;0.0;0.0
8.375;7.0;0.926999872704;1.15060976422e-05;9.96663800225e-07;-0.000510628679674;0.0;0.0
8.5;7.0;0.926999955989;1.50485053136e-05;0.0;-0.000465464353659;0.0;0.0
8.625;7.0;0.92699995127;1.88486086374e-05;1.36032990276e-06;-0.000426672580627;0.0;0.0
8.75;7.0;0.926999792988;2.26470392211e-05;2.09706591511e-06;-0.000392599122367;0.0;0.0
8.875;7.0;0.926999913132;2.66324621116e-05;2.71892003746e-06;-0.000361946293865;0.0;0.0
9.0;7.0;0.926999955831;3.07702722165e-05;2.8051730326e-06;-0.000334722735268;0.0;0.0
9.125;7.0;0.926999674726;3.50481516858e-05;3.05565482826e-06;-0.00031048353228;0.0;0.0
9.25;7.0;0.926999892139;3.94489532261e-05;2.62285593185e-06;-0.000288967897679;0.0;0.0
9.375;7.0;0.927000021252;4.39381735713e-05;1.72104541821e-06;-0.0002693960064;0.0;0.0
9.5;7.0;0.926999205656;4.88864143218e-05;0.0;-0.000253122835855;0.0;0.0
9.67045048712;7.0;0.927000845709;5.57181897315e-05;1.26828150351e-06;-0.000238642664788;0.0;0.0
9.84090097423;7.0;0.926995530172;6.22770933009e-05;1.47496836648e-06;-0.00022887499908;0.0;0.0
10.0113514613;7.0;0.927011022567;6.91598840853e-05;6.97439418425e-07;-0.000221283568587;0.0;0.0
10.1818019485;7.0;0.926967743115;7.6550212265e-05;-5.12635881073e-07;-0.000217936083205;0.0;0.0
10.3409009742;7.0;0.927053799456;8.41679831789e-05;-7.15976537288e-07;-0.000221134975487;0.0;0.0
10.5;7.0;0.927000002831;9.20369951629e-05;0.0;-0.000231637543705;0.0;0.0
10.6590990258;7.0;0.927053799456;9.98928145651e-05;-4.64762279982e-07;-0.000249070237815;0.0;0.0
10.8181980515;7.0;0.926967743115;0.000107481881476;-7.08985989055e-08;-0.000273607534747;0.0;0.0
10.9886485387;7.0;0.927011022567;0.000114850960272;1.2619874734e-06;-0.000306256389321;0.0;0.0
11.1590990258;7.0;0.926995530172;0.000121730938111;2.00177096151e-06;-0.000342682066202;0.0;0.0
11.3295495129;7.0;0.927000845709;0.000128316136637;1.60345666905e-06;-0.000380728376363;0.0;0.0
11.5;7.0;0.926999205656;0.00013527397482;0.0;-0.000423353827696;0.0;0.0
11.625;7.0;0.927000021252;0.000140346352161;1.7833547426e-06;-0.000460553991721;0.0;0.0
11.75;7.0;0.926999892139;0.000144941125335;2.67652984002e-06;-0.000501166131279;0.0;0.0
11.875;7.0;0.926999674726;0.000149469290076;3.04762147051e-06;-0.000543709971225;0.0;0.0
12.0;7.0;0.926999955831;0.000153893704606;2.71630094813e-06;-0.00058908971956;0.0;0.0
12.125;7.0;0.926999913132;0.000158181557158;2.52689033382e-06;-0.000637627374603;0.0;0.0
12.25;7.0;0.926999792988;0.000162334042623;1.8710805779e-06;-0.000689833870075;0.0;0.0
12.375;7.0;0.92699995127;0.000166316878404;1.16506440569e-06;-0.000745885395399;0.0;0.0
12.5;7.0;0.926999955989;0.000170253633946;0.0;-0.000806863966041;0.0;0.0
12.625;7.0;0.926999872704;0.000173941757429;6.09243619546e-07;-0.000874094202168;0.0;0.0
12.75;7.0;0.926999969276;0.000177167506501;7.76361207921e-07;-0.000946442656144;0.0;0.0
12.875;7.0;0.926999985661;0.00018004601814;9.76513458116e-07;-0.00102300835728;0.0;0.0
13.0;7.0;0.926999929804;0.000182540506929;8.57105949308e-07;-0.00110372023374;0.0;0.0
13.125;7.0;0.927000035502;0.000184621261605;1.12819190514e-06;-0.00118812949579;0.0;0.0
13.25;7.0;0.927000018793;0.000186254069566;9.87305546935e-07;-0.00127567334903;0.0;0.0
13.375;7.0;0.926999804227;0.000187414281487;8.90831571132e-07;-0.00136526346928;0.0;0.0
13.5;7.0;0.92700050739;0.000188329130975;0.0;-0.00145713341843;0.0;0.0
13.625;7.0;0.927000142785;0.000188864600525;1.65402759474e-06;-0.00155199211314;0.0;0.0
13.75;7.0;0.926997467659;0.000188938349018;2.48311125122e-06;-0.0016477320307;0.0;0.0
13.875;7.0;0.9270065247;0.000188921061689;3.40999283113e-06;-0.00174274223802;0.0;0.0
14.0;7.0;0.926999999996;0.000188969977026;3.8090379029e-06;-0.00183762503241;0.0;0.0
0.0;0.0;0.926999999996;-0.000194098674384;-0.000194096197059;-0.00252457948145;0.0;0.0
0.0;0.125;0.927006505712;-0.000194063321542;-0.000194141974164;-0.00242997310092;0.0;0.0
0.0;0.25;0.926997475418;-0.000194028410572;-0.000194181694365;-0.00233518987842;0.0;0.0
0.0;0.375;0.927000141985;-0.000194086849181;-0.000194078237753;-0.00224025308771;0.0;0.0
0.0;0.5;0.927000505214;-0.000194226522527;-0.000193692144001;-0.00214574707667;0.0;0.0
0.0;0.625;0.926999804453;-0.000194448188121;-0.000192917400038;-0.00205230416396;0.0;0.0
0.0;0.75;0.927000018071;-0.000194732621794;-0.000191720179497;-0.00196070865927;0.0;0.0
0.0;0.875;0.927000034618;-0.000195089724707;-0.000190064759633;-0.00187174074125;0.0;0.0
0.0;1.0;0.926999929213;-0.000195515006549;-0.000187963499717;-0.00178609624198;0.0;0.0
0.0;1.125;0.926999984739;-0.000196030067716;-0.00018542538341;-0.00170442018287;0.0;0.0
0.0;1.25;0.926999968307;-0.000196636368389;-0.00018248977817;-0.00162714040641;0.0;0.0
0.0;1.375;0.926999871977;-0.000197351564948;-0.000179190995625;-0.00155461290925;0.0;0.0
0.0;1.5;0.926999954865;-0.000198163336226;-0.000175578001286;-0.00148692828262;0.0;0.0
0.0;1.625;0.92699995006;-0.000199064930195;-0.000171694087738;-0.00142410444824;0.0;0.0
0.0;1.75;0.926999792195;-0.000200013780158;-0.000167586467152;-0.00136591040525;0.0;0.0
0.0;1.875;0.926999911949;-0.00020096490458;-0.000163296080742;-0.00131205744653;0.0;0.0
0.0;2.0;0.926999954413;-0.000201839832528;-0.00015885974433;-0.00126207484204;0.0;0.0
0.0;2.125;0.926999673518;-0.000202553893883;-0.000154307736457;-0.0012154619049;0.0;0.0
0.0;2.25;0.926999891737;-0.00020300511443;-0.000149658654014;-0.00117164688482;0.0;0.0
0.0;2.375;0.927000020243;-0.0002030873309;-0.000144926260907;-0.00113006864924;0.0;0.0
0.0;2.5;0.926999199743;-0.000202705556796;-0.000140103752427;-0.0010902392171;0.0;0.0
0.0;2.67045048712;0.927000862532;-0.000201279874884;-0.000133359583759;-0.00103800206224;0.0;0.0
0.0;2.84090097423;0.926995483267;-0.000198814495463;-0.000126321529123;-0.000988015411465;0.0;0.0
0.0;3.01135146135;0.927011154759;-0.000195352846332;-0.00011884846339;-0.000940583259067;0.0;0.0
0.0;3.18180194847;0.926967405565;-0.000191546135986;-0.000110722536684;-0.000897904530179;0.0;0.0
0.0;3.34090097423;0.9270543414;-0.00018847390982;-0.000102303376828;-0.000865231051333;0.0;0.0
0.0;3.5;0.927;-0.000186892401726;-9.31479498242e-05;-0.000843337659052;0.0;0.0
0.0;3.65909902577;0.9270543414;-0.000187685842019;-8.39780539585e-05;-0.000834887610659;0.0;0.0
0.0;3.81819805153;0.926967405565;-0.000190053700071;-7.55263157657e-05;-0.000837497697773;0.0;0.0
0.0;3.98864853865;0.927011154759;-0.000193276822332;-6.73672067374e-05;-0.000848551166343;0.0;0.0
0.0;4.15909902577;0.926995483267;-0.000196356793311;-5.98729092452e-05;-0.00086507752802;0.0;0.0
0.0;4.32954951288;0.927000862532;-0.000198654659806;-5.28393104542e-05;-0.000884932106828;0.0;0.0
0.0;4.5;0.926999199743;-0.000200095669548;-4.61391115523e-05;-0.000907702629072;0.0;0.0
0.0;4.625;0.927000020243;-0.000200584258989;-4.13790134721e-05;-0.000926258240047;0.0;0.0
0.0;4.75;0.926999891737;-0.00020066592389;-3.67371875207e-05;-0.000946736388709;0.0;0.0
0.0;4.875;0.926999673518;-0.000200413948855;-3.22079600356e-05;-0.000969518417595;0.0;0.0
0.0;5.0;0.926999954413;-0.000199912866138;-2.78050684962e-05;-0.000995043061854;0.0;0.0
0.0;5.125;0.926999911949;-0.000199243431933;-2.35460659611e-05;-0.00102375774677;0.0;0.0
0.0;5.25;0.926999792195;-0.000198472870392;-1.94595558477e-05;-0.00105603680183;0.0;0.0
0.0;5.375;0.92699995006;-0.000197661896677;-1.5579576477e-05;-0.0010922269216;0.0;0.0
0.0;5.5;0.926999954865;-0.000196845477997;-1.19437375804e-05;-0.00113250334594;0.0;0.0
0.0;5.625;0.926999871977;-0.000196052456342;-8.5945351537e-06;-0.001176989899;0.0;0.0
0.0;5.75;0.926999968307;-0.000195289475321;-5.57130836921e-06;-0.00122558187525;0.0;0.0
0.0;5.875;0.926999984739;-0.000194559267409;-2.91848442327e-06;-0.00127811308045;0.0;0.0
0.0;6.0;0.926999929213;-0.000193855428314;-6.65163317727e-07;-0.00133417491906;0.0;0.0
0.0;6.125;0.927000034618;-0.000193157964158;1.15967047683e-06;-0.00139329785059;0.0;0.0
0.0;6.25;0.927000018071;-0.000192479209969;2.54851348507e-06;-0.00145482992885;0.0;0.0
0.0;6.375;0.926999804453;-0.000191807711309;3.48462213231e-06;-0.00151809627392;0.0;0.0
0.0;6.5;0.927000505214;-0.000191186788808;4.02896415123e-06;-0.00158234020376;0.0;0.0
0.0;6.625;0.927000141985;-0.00019050924667;4.23710727123e-06;-0.00164679475373;0.0;0.0
0.0;6.75;0.926997475418;-0.000189937861314;4.20833987599e-06;-0.00171092841249;0.0;0.0
0.0;6.875;0.927006505712;-0.000189405146296;4.03434293683e-06;-0.00177451092451;0.0;0.0
0.0;7.0;0.926999999996;-0.000188969977;3.80903790721e-06;-0.00183762503219;0.0;0.0
0.0;0.0;0.926999999996;-0.000194098674384;-0.000194096197059;-0.00252457948145;0.0;0.0
0.125;0.0;0.9270065247;-0.000194144448504;-0.000194060414861;-0.0024299708645;0.0;0.0
0.25;0.0;0.926997467659;-0.000194184165604;-0.000194025074507;-0.00233518540588;0.0;0.0
0.375;0.0;0.927000142785;-0.000194080712425;-0.000194083090302;-0.00224024637995;0.0;0.0
0.5;0.0;0.92700050739;-0.000193694621931;-0.000194222340772;-0.00214573813563;0.0;0.0
0.625;0.0;0.926999804227;-0.000192919876692;-0.000194443579325;-0.00205229299257;0.0;0.0
0.75;0.0;0.927000018793;-0.000191722654539;-0.000194727586203;-0.00196069526275;0.0;0.0
0.875;0.0;0.927000035502;-0.000190067233111;-0.000195084263375;-0.00187172512761;0.0;0.0
1.0;0.0;0.926999929804;-0.000187965971068;-0.000195509120669;-0.00178607842389;0.0;0.0
1.125;0.0;0.926999985661;-0.000185427852094;-0.000196023759491;-0.00170440017825;0.0;0.0
1.25;0.0;0.926999969276;-0.000182492243195;-0.000196629641152;-0.00162711824117;0.0;0.0
1.375;0.0;0.926999872704;-0.000179193455695;-0.000197344423579;-0.00155458861807;0.0;0.0
1.5;0.0;0.926999955989;-0.000175580454615;-0.000198155788043;-0.0014869019126;0.0;0.0
1.625;0.0;0.92699995127;-0.000171696531974;-0.000199056985042;-0.00142407605998;0.0;0.0
1.75;0.0;0.926999792988;-0.00016758889936;-0.000200005451675;-0.00136588007692;0.0;0.0
1.875;0.0;0.926999913132;-0.000163298497754;-0.000200956210689;-0.00131202527478;0.0;0.0
2.0;0.0;0.926999955831;-0.000158862141986;-0.000201830795901;-0.00126204094528;0.0;0.0
2.125;0.0;0.926999674726;-0.000154310109616;-0.000202544542046;-0.0012154264243;0.0;0.0
2.25;0.0;0.926999892139;-0.000149660996967;-0.000202995481989;-0.00117160998726;0.0;0.0
2.375;0.0;0.927000021252;-0.000144928569025;-0.000203077460785;-0.00113003052732;0.0;0.0
2.5;0.0;0.926999205656;-0.000140106019542;-0.000202695497804;-0.00109020008872;0.0;0.0
2.67045048712;0.0;0.927000845709;-0.000133361792629;-0.000201269658285;-0.0010379619553;0.0;0.0
2.84090097423;0.0;0.926995530172;-0.000126323671579;-0.000198804242256;-0.000987974818257;0.0;0.0
3.01135146135;0.0;0.927011022567;-0.000118850589081;-0.000195342749259;-0.000940542687712;0.0;0.0
3.18180194847;0.0;0.926967743115;-0.000110724697286;-0.000191536282099;-0.000897864298804;0.0;0.0
3.34090097423;0.0;0.927053799456;-0.000102305512176;-0.000188464175499;-0.000865191223771;0.0;0.0
3.5;0.0;0.927000002831;-9.31500201245e-05;-0.000186882840501;-0.000843298403061;0.0;0.0
3.65909902577;0.0;0.927053799456;-8.39800935174e-05;-0.000187676684544;-0.000834849214308;0.0;0.0
3.81819805153;0.0;0.926967743115;-7.55283694808e-05;-0.000190044968559;-0.000837460239984;0.0;0.0
3.98864853865;0.0;0.927011022567;-6.73692799284e-05;-0.000193268370334;-0.000848514617448;0.0;0.0
4.15909902577;0.0;0.926995530172;-5.9874952628e-05;-0.000196348630365;-0.000865041953475;0.0;0.0
4.32954951288;0.0;0.927000845709;-5.28412970996e-05;-0.000198646892072;-0.000884897717878;0.0;0.0
4.5;0.0;0.926999205656;-4.61410480226e-05;-0.000200088332328;-0.000907669605583;0.0;0.0
4.625;0.0;0.927000021252;-4.13809154761e-05;-0.000200577257648;-0.000926226302927;0.0;0.0
4.75;0.0;0.926999892139;-3.67390594508e-05;-0.000200659264996;-0.000946705586501;0.0;0.0
4.875;0.0;0.926999674726;-3.22098051113e-05;-0.000200407635961;-0.000969488777816;0.0;0.0
5.0;0.0;0.926999955831;-2.78068901051e-05;-0.000199906897616;-0.000995014594056;0.0;0.0
5.125;0.0;0.926999913132;-2.35478666559e-05;-0.000199237802527;-0.00102373044325;0.0;0.0
5.25;0.0;0.926999792988;-1.94613369383e-05;-0.000198467573138;-0.00105601064325;0.0;0.0
5.375;0.0;0.92699995127;-1.55813381464e-05;-0.000197656923483;-0.0010922018784;0.0;0.0
5.5;0.0;0.926999955989;-1.19454793157e-05;-0.000196840819104;-0.0011324793842;0.0;0.0
5.625;0.0;0.926999872704;-8.59625561788e-06;-0.000196048102066;-0.00117696698153;0.0;0.0
5.75;0.0;0.926999969276;-5.57300535625e-06;-0.0001952854149;-0.00122555996868;0.0;0.0
5.875;0.0;0.926999985661;-2.9201547458e-06;-0.000194555491756;-0.0012780921559;0.0;0.0
6.0;0.0;0.926999929804;-6.66803773229e-07;-0.000193851926379;-0.00133415496018;0.0;0.0
6.125;0.0;0.927000035502;1.15806225709e-06;-0.000193154731307;-0.00139327885416;0.0;0.0
6.25;0.0;0.927000018793;2.54693987112e-06;-0.000192476234931;-0.00145481190919;0.0;0.0
6.375;0.0;0.926999804227;3.48308771446e-06;-0.000191804990654;-0.00151807925841;0.0;0.0
6.5;0.0;0.92700050739;4.02746602989e-06;-0.00019118430761;-0.00158232424229;0.0;0.0
6.625;0.0;0.927000142785;4.23563401604e-06;-0.000190507023887;-0.00164677992178;0.0;0.0
6.75;0.0;0.926997467659;4.20688391681e-06;-0.000189935880347;-0.00171091479531;0.0;0.0
6.875;0.0;0.9270065247;4.03291252827e-06;-0.000189403424286;-0.00177449854706;0.0;0.0
7.0;0.0;0.926999999996;-3.80765248539e-06;-0.000188968485954;-0.00183761393289;0.0;0.0
7.125;0.0;0.9270065247;-4.03291250993e-06;-0.000189403424285;-0.00177449854704;0.0;0.0
7.25;0.0;0.926997467659;-4.20688389856e-06;-0.000189935880345;-0.00171091479528;0.0;0.0
7.375;0.0;0.927000142785;-4.23563399783e-06;-0.000190507023883;-0.00164677992173;0.0;0.0
7.5;0.0;0.92700050739;-4.02746601157e-06;-0.000191184307604;-0.00158232424223;0.0;0.0
7.625;0.0;0.926999804227;-3.48308769591e-06;-0.000191804990646;-0.00151807925834;0.0;0.0
7.75;0.0;0.927000018793;-2.5469398523e-06;-0.000192476234921;-0.0014548119091;0.0;0.0
7.875;0.0;0.927000035502;-1.15806223789e-06;-0.000193154731295;-0.00139327885405;0.0;0.0
8.0;0.0;0.926999929804;6.66803792929e-07;-0.000193851926365;-0.00133415496006;0.0;0.0
8.125;0.0;0.926999985661;2.92015476607e-06;-0.00019455549174;-0.00127809215577;0.0;0.0
8.25;0.0;0.926999969276;5.57300537717e-06;-0.000195285414882;-0.00122555996854;0.0;0.0
8.375;0.0;0.926999872704;8.59625563948e-06;-0.000196048102046;-0.00117696698138;0.0;0.0
8.5;0.0;0.926999955989;1.1945479338e-05;-0.000196840819083;-0.00113247938405;0.0;0.0
8.625;0.0;0.92699995127;1.55813381693e-05;-0.00019765692346;-0.00109220187825;0.0;0.0
8.75;0.0;0.926999792988;1.94613369616e-05;-0.000198467573115;-0.0010560106431;0.0;0.0
8.875;0.0;0.926999913132;2.35478666795e-05;-0.000199237802502;-0.00102373044309;0.0;0.0
9.0;0.0;0.926999955831;2.7806890129e-05;-0.00019990689759;-0.0009950145939;0.0;0.0
9.125;0.0;0.926999674726;3.22098051354e-05;-0.000200407635934;-0.000969488777661;0.0;0.0
9.25;0.0;0.926999892139;3.6739059475e-05;-0.00020065926497;-0.000946705586348;0.0;0.0
9.375;0.0;0.927000021252;4.13809155005e-05;-0.000200577257621;-0.000926226302778;0.0;0.0
9.5;0.0;0.926999205656;4.61410480471e-05;-0.0002000883323;-0.000907669605438;0.0;0.0
9.67045048712;0.0;0.927000845709;5.28412971244e-05;-0.000198646892044;-0.00088489771774;0.0;0.0
9.84090097423;0.0;0.926995530172;5.98749526529e-05;-0.000196348630339;-0.000865041953345;0.0;0.0
10.0113514613;0.0;0.927011022567;6.73692799535e-05;-0.000193268370308;-0.000848514617329;0.0;0.0
10.1818019485;0.0;0.926967743115;7.55283695061e-05;-0.000190044968535;-0.000837460239876;0.0;0.0
10.3409009742;0.0;0.927053799456;8.3980093543e-05;-0.000187676684522;-0.000834849214214;0.0;0.0
10.5;0.0;0.927000002831;9.31500201504e-05;-0.000186882840481;-0.000843298402982;0.0;0.0
10.6590990258;0.0;0.927053799456;0.000102305512202;-0.000188464175484;-0.00086519122371;0.0;0.0
10.8181980515;0.0;0.926967743115;0.000110724697313;-0.000191536282087;-0.000897864298761;0.0;0.0
10.9886485387;0.0;0.927011022567;0.000118850589108;-0.00019534274925;-0.000940542687689;0.0;0.0
11.1590990258;0.0;0.926995530172;0.000126323671606;-0.000198804242252;-0.000987974818256;0.0;0.0
11.3295495129;0.0;0.927000845709;0.000133361792657;-0.000201269658284;-0.00103796195532;0.0;0.0
11.5;0.0;0.926999205656;0.00014010601957;-0.000202695497806;-0.00109020008875;0.0;0.0
11.625;0.0;0.927000021252;0.000144928569052;-0.000203077460788;-0.00113003052737;0.0;0.0
11.75;0.0;0.926999892139;0.000149660996994;-0.000202995481994;-0.00117160998732;0.0;0.0
11.875;0.0;0.926999674726;0.000154310109644;-0.000202544542052;-0.00121542642437;0.0;0.0
12.0;0.0;0.926999955831;0.000158862142014;-0.000201830795909;-0.00126204094536;0.0;0.0
12.125;0.0;0.926999913132;0.000163298497782;-0.000200956210697;-0.00131202527487;0.0;0.0
12.25;0.0;0.926999792988;0.000167588899388;-0.000200005451685;-0.00136588007702;0.0;0.0
12.375;0.0;0.92699995127;0.000171696532003;-0.000199056985053;-0.00142407606008;0.0;0.0
12.5;0.0;0.926999955989;0.000175580454644;-0.000198155788055;-0.00148690191272;0.0;0.0
12.625;0.0;0.926999872704;0.000179193455724;-0.000197344423592;-0.0015545886182;0.0;0.0
12.75;0.0;0.926999969276;0.000182492243225;-0.000196629641165;-0.00162711824131;0.0;0.0
12.875;0.0;0.926999985661;0.000185427852124;-0.000196023759505;-0.0017044001784;0.0;0.0
13.0;0.0;0.926999929804;0.000187965971098;-0.000195509120685;-0.00178607842405;0.0;0.0
13.125;0.0;0.927000035502;0.000190067233142;-0.000195084263391;-0.00187172512778;0.0;0.0
13.25;0.0;0.927000018793;0.000191722654569;-0.00019472758622;-0.00196069526293;0.0;0.0
13.375;0.0;0.926999804227;0.000192919876723;-0.000194443579344;-0.00205229299277;0.0;0.0
13.5;0.0;0.92700050739;0.000193694621962;-0.000194222340791;-0.00214573813584;0.0;0.0
13.625;0.0;0.927000142785;0.000194080712456;-0.000194083090322;-0.00224024638017;0.0;0.0
13.75;0.0;0.926997467659;0.000194184165635;-0.000194025074528;-0.00233518540611;0.0;0.0
13.875;0.0;0.9270065247;0.000194144448535;-0.000194060414883;-0.00242997086475;0.0;0.0
14.0;0.0;0.926999999996;0.000194098674415;-0.000194096197082;-0.00252457948171;0.0;0.0
14.0;0.0;0.926999999996;0.000194098674415;-0.000194096197082;-0.00252457948171;0.0;0.0
14.0;0.125;0.927006505712;0.000194063321574;-0.000194141974186;-0.00242997310117;0.0;0.0
14.0;0.25;0.926997475418;0.000194028410605;-0.000194181694387;-0.00233518987868;0.0;0.0
14.0;0.375;0.927000141985;0.000194086849214;-0.000194078237775;-0.00224025308796;0.0;0.0
14.0;0.5;0.927000505214;0.000194226522561;-0.000193692144023;-0.00214574707692;0.0;0.0
14.0;0.625;0.926999804453;0.000194448188155;-0.00019291740006;-0.00205230416421;0.0;0.0
14.0;0.75;0.927000018071;0.000194732621829;-0.000191720179519;-0.00196070865951;0.0;0.0
14.0;0.875;0.927000034618;0.000195089724743;-0.000190064759655;-0.00187174074149;0.0;0.0
14.0;1.0;0.926999929213;0.000195515006585;-0.000187963499739;-0.00178609624222;0.0;0.0
14.0;1.125;0.926999984739;0.000196030067753;-0.000185425383432;-0.00170442018311;0.0;0.0
14.0;1.25;0.926999968307;0.000196636368426;-0.000182489778192;-0.00162714040664;0.0;0.0
14.0;1.375;0.926999871977;0.000197351564984;-0.000179190995647;-0.00155461290947;0.0;0.0
14.0;1.5;0.926999954865;0.000198163336263;-0.000175578001308;-0.00148692828284;0.0;0.0
14.0;1.625;0.92699995006;0.000199064930231;-0.00017169408776;-0.00142410444845;0.0;0.0
14.0;1.75;0.926999792195;0.000200013780193;-0.000167586467174;-0.00136591040544;0.0;0.0
14.0;1.875;0.926999911949;0.000200964904614;-0.000163296080764;-0.00131205744671;0.0;0.0
14.0;2.0;0.926999954413;0.000201839832561;-0.000158859744351;-0.00126207484221;0.0;0.0
14.0;2.125;0.926999673518;0.000202553893915;-0.000154307736478;-0.00121546190506;0.0;0.0
14.0;2.25;0.926999891737;0.00020300511446;-0.000149658654035;-0.00117164688497;0.0;0.0
14.0;2.375;0.927000020243;0.000203087330928;-0.000144926260928;-0.00113006864937;0.0;0.0
14.0;2.5;0.926999199743;0.000202705556822;-0.000140103752447;-0.00109023921722;0.0;0.0
14.0;2.67045048712;0.927000862532;0.000201279874907;-0.000133359583778;-0.00103800206235;0.0;0.0
14.0;2.84090097423;0.926995483267;0.000198814495483;-0.000126321529142;-0.000988015411553;0.0;0.0
14.0;3.01135146135;0.927011154759;0.00019535284635;-0.000118848463409;-0.000940583259139;0.0;0.0
14.0;3.18180194847;0.926967405565;0.000191546136;-0.000110722536702;-0.000897904530236;0.0;0.0
14.0;3.34090097423;0.9270543414;0.000188473909831;-0.000102303376846;-0.000865231051375;0.0;0.0
14.0;3.5;0.927;0.000186892401734;-9.31479498419e-05;-0.000843337659079;0.0;0.0
14.0;3.65909902577;0.9270543414;0.000187685842025;-8.3978053976e-05;-0.000834887610672;0.0;0.0
14.0;3.81819805153;0.926967405565;0.000190053700074;-7.5526315783e-05;-0.000837497697773;0.0;0.0
14.0;3.98864853865;0.927011154759;0.000193276822333;-6.73672067544e-05;-0.00084855116633;0.0;0.0
14.0;4.15909902577;0.926995483267;0.000196356793311;-5.98729092617e-05;-0.000865077527998;0.0;0.0
14.0;4.32954951288;0.927000862532;0.000198654659805;-5.28393104701e-05;-0.000884932106798;0.0;0.0
14.0;4.5;0.926999199743;0.000200095669547;-4.61391115677e-05;-0.000907702629037;0.0;0.0
14.0;4.625;0.927000020243;0.000200584258989;-4.1379013487e-05;-0.000926258240011;0.0;0.0
14.0;4.75;0.926999891737;0.00020066592389;-3.67371875351e-05;-0.000946736388673;0.0;0.0
14.0;4.875;0.926999673518;0.000200413948856;-3.22079600496e-05;-0.00096951841756;0.0;0.0
14.0;5.0;0.926999954413;0.00019991286614;-2.78050685098e-05;-0.000995043061821;0.0;0.0
14.0;5.125;0.926999911949;0.000199243431936;-2.35460659742e-05;-0.00102375774674;0.0;0.0
14.0;5.25;0.926999792195;0.000198472870396;-1.94595558602e-05;-0.0010560368018;0.0;0.0
14.0;5.375;0.92699995006;0.000197661896682;-1.55795764889e-05;-0.00109222692158;0.0;0.0
14.0;5.5;0.926999954865;0.000196845478003;-1.19437375916e-05;-0.00113250334593;0.0;0.0
14.0;5.625;0.926999871977;0.00019605245635;-8.59453516408e-06;-0.001176989899;0.0;0.0
14.0;5.75;0.926999968307;0.00019528947533;-5.57130837874e-06;-0.00122558187526;0.0;0.0
14.0;5.875;0.926999984739;0.000194559267419;-2.9184844319e-06;-0.00127811308047;0.0;0.0
14.0;6.0;0.926999929213;0.000193855428327;-6.6516332542e-07;-0.00133417491909;0.0;0.0
14.0;6.125;0.927000034618;0.000193157964173;1.15967047007e-06;-0.00139329785064;0.0;0.0
14.0;6.25;0.927000018071;0.000192479209985;2.54851347919e-06;-0.00145482992892;0.0;0.0
14.0;6.375;0.926999804453;0.000191807711328;3.48462212717e-06;-0.00151809627402;0.0;0.0
14.0;6.5;0.927000505214;0.000191186788828;4.02896414661e-06;-0.00158234020388;0.0;0.0
14.0;6.625;0.927000141985;0.000190509246692;4.23710726691e-06;-0.00164679475387;0.0;0.0
14.0;6.75;0.926997475418;0.000189937861337;4.20833987175e-06;-0.00171092841266;0.0;0.0
14.0;6.875;0.927006505712;0.000189405146321;4.03434293254e-06;-0.00177451092471;0.0;0.0
14.0;7.0;0.926999999996;0.000188969977026;3.8090379029e-06;-0.00183762503241;0.0;0.0
7.0;0.0;0.926999999996;3.80765250376e-06;-0.000188968485953;-0.0018376139329;9.61687326995e-16;-1.73472347598e-15
7.0;0.125;0.927006505712;3.40880383731e-06;-0.000188919600584;-0.0017427323975;1.00879591139e-15;-5.98479599212e-16
7.0;0.25;0.926997475418;2.48225005574e-06;-0.000188936902315;-0.00164772340868;1.10927434772e-15;1.20129600711e-16
7.0;0.375;0.927000141985;1.65348670638e-06;-0.000188863146019;-0.0015519848132;1.15079929093e-15;1.88651178012e-16
7.0;0.5;0.927000505214;6.26733854005e-15;-0.000188327715122;-0.00145712725554;1.06338549077e-15;0.0
7.0;0.625;0.926999804453;8.90706137346e-07;-0.000187412901996;-0.00136525784755;8.87473688288e-16;-1.44415729375e-16
7.0;0.75;0.927000018071;9.87241058335e-07;-0.000186252678256;-0.00127566806028;6.5748730245e-16;-5.65953534037e-17
7.0;0.875;0.927000034618;1.12818492859e-06;-0.000184619860303;-0.00118812458971;4.25305407212e-16;3.61689844741e-16
7.0;1.0;0.926999929213;8.57208213236e-07;-0.000182539095969;-0.0011037156491;2.60696412374e-16;7.71084585072e-16
7.0;1.125;0.926999984739;9.76673303118e-07;-0.000180044578627;-0.0010230040499;9.82016117729e-17;8.18355799792e-16
7.0;1.25;0.926999968307;7.76541714966e-07;-0.000177166037959;-0.000946438598814;-1.00586856552e-16;6.58219138916e-16
7.0;1.375;0.926999871977;6.09386654729e-07;-0.000173940259107;-0.00087409031202;-3.02438196015e-16;3.92155925788e-16
7.0;1.5;0.926999954865;2.31490608668e-15;-0.000170252069383;-0.000806860351992;-5.20688093336e-16;0.0
7.0;1.625;0.92699995006;1.16530735262e-06;-0.000166315251168;-0.000745882435003;-7.55688914222e-16;-4.24898831397e-16
7.0;1.75;0.926999792195;1.87145149379e-06;-0.000162332398462;-0.000689831654237;-1.01413560709e-15;-7.69133021161e-16
7.0;1.875;0.926999911949;2.52735058791e-06;-0.000158179901043;-0.000637625779477;-1.2709559967e-15;-8.81022685362e-16
7.0;2.0;0.926999954413;2.71675575172e-06;-0.000153892044172;-0.000589088663882;-1.50362578291e-15;-8.56953397133e-16
7.0;2.125;0.926999673518;3.04809669151e-06;-0.000149467631552;-0.00054370934036;-1.72393566436e-15;-7.04080890812e-16
7.0;2.25;0.926999891737;2.6769203303e-06;-0.000144939475348;-0.000501165815384;-1.92006783736e-15;-4.98624579126e-16
7.0;2.375;0.927000020243;1.78360973749e-06;-0.000140344717199;-0.000460553810602;-2.11145662586e-15;-3.15611252411e-16
7.0;2.5;0.926999199743;9.90266194729e-16;-0.0001352723119;-0.000423353835711;-2.33867829616e-15;0.0
7.0;2.67045048712;0.927000862532;1.60367807599e-06;-0.000128314453652;-0.000380729134246;-2.58758400991e-15;9.18481870421e-16
7.0;2.84090097423;0.926995483267;2.00206151566e-06;-0.00012172932627;-0.000342683550384;-2.71851497476e-15;1.67693550018e-15
7.0;3.01135146135;0.927011154759;1.26224117759e-06;-0.000114849385467;-0.000306258188894;-2.81747552806e-15;1.83127167944e-15
7.0;3.18180194847;0.926967405565;-7.08011315829e-08;-0.000107480307678;-0.000273609506456;-2.93671066198e-15;1.42111799759e-15
7.0;3.34090097423;0.9270543414;-4.64680249442e-07;-9.98913002479e-05;-0.000249072350062;-3.0794052204e-15;6.97684097994e-16
7.0;3.5;0.927;1.1463615227e-15;-9.20355571866e-05;-0.000231639800646;-3.30449914394e-15;0.0
7.0;3.65909902577;0.9270543414;-7.15934529945e-07;-8.41665885553e-05;-0.000221137420827;-3.54700806487e-15;-1.44659674864e-16
7.0;3.81819805153;0.926967405565;-5.12608921472e-07;-7.65488381695e-05;-0.00021793875413;-3.72881521667e-15;-1.33356867216e-17
7.0;3.98864853865;0.927011154759;6.97588577107e-07;-6.91585248902e-05;-0.000221286531493;-3.90529622529e-15;2.6777083155e-16
7.0;4.15909902577;0.926995483267;1.47515585583e-06;-6.22757852291e-05;-0.000228878194185;-4.0063574203e-15;4.81548394909e-16
7.0;4.32954951288;0.927000862532;1.26842936122e-06;-5.57169486185e-05;-0.000238645814488;-4.08725923115e-15;3.51579659483e-16
7.0;4.5;0.926999199743;2.01024397007e-15;-4.88851803553e-05;-0.000253125909724;-4.16621625437e-15;0.0
7.0;4.625;0.927000020243;1.7211967259e-06;-4.39369351158e-05;-0.000269399247598;-4.22703321998e-15;-4.38234518119e-16
7.0;4.75;0.926999891737;2.62308166334e-06;-3.94477355825e-05;-0.000288971343458;-4.33250576257e-15;-8.04315381658e-16
7.0;4.875;0.926999673518;3.05592485061e-06;-3.50469504932e-05;-0.000310487079872;-4.43796475263e-15;-9.27101277692e-16
7.0;5.0;0.926999954413;2.80542527271e-06;-3.07690829779e-05;-0.000334726327509;-4.51404186383e-15;-9.00267273923e-16
7.0;5.125;0.926999911949;2.71916836776e-06;-2.66312825667e-05;-0.000361949873494;-4.57894491638e-15;-8.49635032468e-16
7.0;5.25;0.926999792195;2.09726146736e-06;-2.26458654247e-05;-0.000392602649731;-4.65545570844e-15;-6.95678323975e-16
7.0;5.375;0.92699995006;1.36045406829e-06;-1.8847438815e-05;-0.000426675999987;-4.71712309513e-15;-4.0744317642e-16
7.0;5.5;0.926999954865;3.81195775144e-15;-1.50473192586e-05;-0.00046546770651;-4.78638497922e-15;0.0
7.0;5.625;0.926999871977;9.96711343245e-07;-1.15048956022e-05;-0.000510632137879;-4.84072553092e-15;6.04984812247e-16
7.0;5.75;0.926999968307;1.35675553344e-06;-8.49614341926e-06;-0.000560511443793;-4.86749516019e-15;1.2735038718e-15
7.0;5.875;0.926999984739;1.62282409376e-06;-5.84136461666e-06;-0.000613807652857;-4.87274845853e-15;1.94050504831e-15
7.0;6.0;0.926999929213;1.45399994022e-06;-3.57238308942e-06;-0.000670479137791;-4.83934656128e-15;2.50786804518e-15
7.0;6.125;0.927000034618;1.57614447952e-06;-1.72949907941e-06;-0.000729999279715;-4.7605765206e-15;2.76731762505e-15
7.0;6.25;0.927000018071;1.27573291568e-06;-3.23749036691e-07;-0.00079177750579;-4.62518068626e-15;2.61910718807e-15
7.0;6.375;0.926999804453;9.61739808746e-07;6.20468680236e-07;-0.000854837858932;-4.41927137076e-15;1.86742982189e-15
7.0;6.5;0.927000505214;5.67391582953e-15;1.30364430949e-06;-0.000919206968429;-4.01745270487e-15;0.0
7.0;6.625;0.927000141985;8.57888589081e-07;1.64713068195e-06;-0.000985264195094;-3.64764468461e-15;-4.24638622876e-15
7.0;6.75;0.926997475418;1.10236982676e-06;1.61149290613e-06;-0.0010513808787;-3.62307564694e-15;-9.17430194314e-15
7.0;6.875;0.927006505712;1.39794122714e-06;1.4724306792e-06;-0.00111650242382;-3.63775875132e-15;-1.36646336607e-14
7.0;7.0;0.926999999996;1.35638403996e-06;1.35730167747e-06;-0.00118121043026;-3.5439367234e-15;-1.80239937558e-14
